digraph Tree {
node [shape=box, style="filled", color="black", fontname="helvetica"] ;
edge [fontname="helvetica"] ;
0 [label="ycf <= 4.043\ngini = 0.328\nsamples = 560\nvalue = [444, 116]", fillcolor="#eca26d"] ;
1 [label="yf <= 2.428\ngini = 0.12\nsamples = 109\nvalue = [7, 102]", fillcolor="#47a4e7"] ;
0 -> 1 [labeldistance=2.5, labelangle=45, headlabel="True"] ;
2 [label="gini = 0.0\nsamples = 7\nvalue = [7, 0]", fillcolor="#e58139"] ;
1 -> 2 ;
3 [label="gini = 0.0\nsamples = 102\nvalue = [0, 102]", fillcolor="#399de5"] ;
1 -> 3 ;
4 [label="yf <= 5.037\ngini = 0.06\nsamples = 451\nvalue = [437, 14]", fillcolor="#e6853f"] ;
0 -> 4 [labeldistance=2.5, labelangle=-45, headlabel="False"] ;
5 [label="gini = 0.0\nsamples = 413\nvalue = [413, 0]", fillcolor="#e58139"] ;
4 -> 5 ;
6 [label="ycf <= 5.659\ngini = 0.465\nsamples = 38\nvalue = [24, 14]", fillcolor="#f4caac"] ;
4 -> 6 ;
7 [label="(...)", fillcolor="#C0C0C0"] ;
6 -> 7 ;
10 [label="(...)", fillcolor="#C0C0C0"] ;
6 -> 10 ;
}